digraph Tree {
node [shape=box, style="filled, rounded", color="black", fontname=helvetica] ;
edge [fontname=helvetica] ;
0 [label="信用评分 <= 0.327\ngini = 0.5\nsamples = 3962\nvalue = [3165, 3064]\nclass = 不违约", fillcolor="#fefbf9"] ;
1 [label="信用评分 <= 0.271\ngini = 0.026\nsamples = 1359\nvalue = [28, 2078]\nclass = 违约", fillcolor="#3c9ee5"] ;
0 -> 1 [labeldistance=2.5, labelangle=45, headlabel="True"] ;
2 [label="借款金额（万元） <= 0.001\ngini = 0.001\nsamples = 1165\nvalue = [1, 1801]\nclass = 违约", fillcolor="#399de5"] ;
1 -> 2 ;
3 [label="gini = 0.133\nsamples = 13\nvalue = [1, 13]\nclass = 违约", fillcolor="#48a5e7"] ;
2 -> 3 ;
4 [label="gini = 0.0\nsamples = 1152\nvalue = [0, 1788]\nclass = 违约", fillcolor="#399de5"] ;
2 -> 4 ;
5 [label="期限（月） <= 0.045\ngini = 0.162\nsamples = 194\nvalue = [27, 277]\nclass = 违约", fillcolor="#4ca7e8"] ;
1 -> 5 ;
6 [label="gini = 0.498\nsamples = 8\nvalue = [8, 9]\nclass = 违约", fillcolor="#e9f4fc"] ;
5 -> 6 ;
7 [label="收入水平 <= 0.389\ngini = 0.124\nsamples = 186\nvalue = [19, 268]\nclass = 违约", fillcolor="#47a4e7"] ;
5 -> 7 ;
8 [label="借款金额（万元） <= 0.047\ngini = 0.255\nsamples = 50\nvalue = [12, 68]\nclass = 违约", fillcolor="#5caeea"] ;
7 -> 8 ;
9 [label="年龄 <= 0.225\ngini = 0.193\nsamples = 46\nvalue = [8, 66]\nclass = 违约", fillcolor="#51a9e8"] ;
8 -> 9 ;
10 [label="文本可读性指标2 <= 0.146\ngini = 0.069\nsamples = 36\nvalue = [2, 54]\nclass = 违约", fillcolor="#40a1e6"] ;
9 -> 10 ;
11 [label="gini = 0.0\nsamples = 31\nvalue = [0, 50]\nclass = 违约", fillcolor="#399de5"] ;
10 -> 11 ;
12 [label="gini = 0.444\nsamples = 5\nvalue = [2, 4]\nclass = 违约", fillcolor="#9ccef2"] ;
10 -> 12 ;
13 [label="gini = 0.444\nsamples = 10\nvalue = [6, 12]\nclass = 违约", fillcolor="#9ccef2"] ;
9 -> 13 ;
14 [label="gini = 0.444\nsamples = 4\nvalue = [4, 2]\nclass = 不违约", fillcolor="#f2c09c"] ;
8 -> 14 ;
15 [label="借款金额（万元） <= 0.07\ngini = 0.065\nsamples = 136\nvalue = [7, 200]\nclass = 违约", fillcolor="#40a0e6"] ;
7 -> 15 ;
16 [label="借款用途6 <= 0.5\ngini = 0.014\nsamples = 89\nvalue = [1, 139]\nclass = 违约", fillcolor="#3a9ee5"] ;
15 -> 16 ;
17 [label="gini = 0.0\nsamples = 85\nvalue = [0, 135]\nclass = 违约", fillcolor="#399de5"] ;
16 -> 17 ;
18 [label="gini = 0.32\nsamples = 4\nvalue = [1, 4]\nclass = 违约", fillcolor="#6ab6ec"] ;
16 -> 18 ;
19 [label="是否有房 <= 0.5\ngini = 0.163\nsamples = 47\nvalue = [6, 61]\nclass = 违约", fillcolor="#4ca7e8"] ;
15 -> 19 ;
20 [label="gini = 0.0\nsamples = 27\nvalue = [0, 39]\nclass = 违约", fillcolor="#399de5"] ;
19 -> 20 ;
21 [label="文本可读性指标3 <= 0.07\ngini = 0.337\nsamples = 20\nvalue = [6, 22]\nclass = 违约", fillcolor="#6fb8ec"] ;
19 -> 21 ;
22 [label="gini = 0.49\nsamples = 5\nvalue = [4, 3]\nclass = 不违约", fillcolor="#f8e0ce"] ;
21 -> 22 ;
23 [label="gini = 0.172\nsamples = 15\nvalue = [2, 19]\nclass = 违约", fillcolor="#4ea7e8"] ;
21 -> 23 ;
24 [label="Interest(%) <= 0.425\ngini = 0.364\nsamples = 2603\nvalue = [3137, 986]\nclass = 不违约", fillcolor="#eda977"] ;
0 -> 24 [labeldistance=2.5, labelangle=-45, headlabel="False"] ;
25 [label="信用评分 <= 0.396\ngini = 0.323\nsamples = 2200\nvalue = [2807, 714]\nclass = 不违约", fillcolor="#eca16b"] ;
24 -> 25 ;
26 [label="期限（月） <= 0.091\ngini = 0.406\nsamples = 945\nvalue = [1093, 432]\nclass = 不违约", fillcolor="#efb387"] ;
25 -> 26 ;
27 [label="文本可读性指标2 <= 0.059\ngini = 0.141\nsamples = 143\nvalue = [193, 16]\nclass = 不违约", fillcolor="#e78b49"] ;
26 -> 27 ;
28 [label="是否结婚 <= 0.5\ngini = 0.451\nsamples = 21\nvalue = [21, 11]\nclass = 不违约", fillcolor="#f3c3a1"] ;
27 -> 28 ;
29 [label="gini = 0.0\nsamples = 11\nvalue = [17, 0]\nclass = 不违约", fillcolor="#e58139"] ;
28 -> 29 ;
30 [label="gini = 0.391\nsamples = 10\nvalue = [4, 11]\nclass = 违约", fillcolor="#81c1ee"] ;
28 -> 30 ;
31 [label="年龄 <= 0.059\ngini = 0.055\nsamples = 122\nvalue = [172, 5]\nclass = 不违约", fillcolor="#e6853f"] ;
27 -> 31 ;
32 [label="gini = 0.375\nsamples = 7\nvalue = [6, 2]\nclass = 不违约", fillcolor="#eeab7b"] ;
31 -> 32 ;
33 [label="Interest(%) <= 0.28\ngini = 0.035\nsamples = 115\nvalue = [166, 3]\nclass = 不违约", fillcolor="#e5833d"] ;
31 -> 33 ;
34 [label="年龄 <= 0.288\ngini = 0.024\nsamples = 111\nvalue = [161, 2]\nclass = 不违约", fillcolor="#e5833b"] ;
33 -> 34 ;
35 [label="gini = 0.0\nsamples = 79\nvalue = [114, 0]\nclass = 不违约", fillcolor="#e58139"] ;
34 -> 35 ;
36 [label="借款用途5 <= 0.5\ngini = 0.078\nsamples = 32\nvalue = [47, 2]\nclass = 不违约", fillcolor="#e68641"] ;
34 -> 36 ;
37 [label="文本可读性指标3 <= 0.04\ngini = 0.044\nsamples = 28\nvalue = [43, 1]\nclass = 不违约", fillcolor="#e6843e"] ;
36 -> 37 ;
38 [label="gini = 0.278\nsamples = 5\nvalue = [5, 1]\nclass = 不违约", fillcolor="#ea9a61"] ;
37 -> 38 ;
39 [label="gini = 0.0\nsamples = 23\nvalue = [38, 0]\nclass = 不违约", fillcolor="#e58139"] ;
37 -> 39 ;
40 [label="gini = 0.32\nsamples = 4\nvalue = [4, 1]\nclass = 不违约", fillcolor="#eca06a"] ;
36 -> 40 ;
41 [label="gini = 0.278\nsamples = 4\nvalue = [5, 1]\nclass = 不违约", fillcolor="#ea9a61"] ;
33 -> 41 ;
42 [label="请求表达 <= 0.982\ngini = 0.432\nsamples = 802\nvalue = [900, 416]\nclass = 不违约", fillcolor="#f1bb95"] ;
26 -> 42 ;
43 [label="收入信息（有无） <= 0.98\ngini = 0.407\nsamples = 704\nvalue = [827, 328]\nclass = 不违约", fillcolor="#efb388"] ;
42 -> 43 ;
44 [label="借款金额（万元） <= 0.149\ngini = 0.372\nsamples = 615\nvalue = [765, 251]\nclass = 不违约", fillcolor="#eeaa7a"] ;
43 -> 44 ;
45 [label="借款用途5 <= 0.5\ngini = 0.362\nsamples = 607\nvalue = [765, 238]\nclass = 不违约", fillcolor="#eda877"] ;
44 -> 45 ;
46 [label="信用评分 <= 0.347\ngini = 0.312\nsamples = 454\nvalue = [596, 143]\nclass = 不违约", fillcolor="#eb9f69"] ;
45 -> 46 ;
47 [label="期限（月） <= 0.269\ngini = 0.423\nsamples = 147\nvalue = [167, 73]\nclass = 不违约", fillcolor="#f0b890"] ;
46 -> 47 ;
48 [label="信用评分 <= 0.346\ngini = 0.208\nsamples = 67\nvalue = [97, 13]\nclass = 不违约", fillcolor="#e89254"] ;
47 -> 48 ;
49 [label="借款用途2 <= 0.5\ngini = 0.157\nsamples = 63\nvalue = [96, 9]\nclass = 不违约", fillcolor="#e78d4c"] ;
48 -> 49 ;
50 [label="文本可读性指标1 <= 0.007\ngini = 0.029\nsamples = 39\nvalue = [66, 1]\nclass = 不违约", fillcolor="#e5833c"] ;
49 -> 50 ;
51 [label="gini = 0.375\nsamples = 4\nvalue = [3, 1]\nclass = 不违约", fillcolor="#eeab7b"] ;
50 -> 51 ;
52 [label="gini = 0.0\nsamples = 35\nvalue = [63, 0]\nclass = 不违约", fillcolor="#e58139"] ;
50 -> 52 ;
53 [label="文本可读性指标2 <= 0.109\ngini = 0.332\nsamples = 24\nvalue = [30, 8]\nclass = 不违约", fillcolor="#eca36e"] ;
49 -> 53 ;
54 [label="gini = 0.0\nsamples = 13\nvalue = [22, 0]\nclass = 不违约", fillcolor="#e58139"] ;
53 -> 54 ;
55 [label="gini = 0.5\nsamples = 11\nvalue = [8, 8]\nclass = 不违约", fillcolor="#ffffff"] ;
53 -> 55 ;
56 [label="gini = 0.32\nsamples = 4\nvalue = [1, 4]\nclass = 违约", fillcolor="#6ab6ec"] ;
48 -> 56 ;
57 [label="文本可读性指标3 <= 0.044\ngini = 0.497\nsamples = 80\nvalue = [70, 60]\nclass = 不违约", fillcolor="#fbede3"] ;
47 -> 57 ;
58 [label="gini = 0.266\nsamples = 14\nvalue = [3, 16]\nclass = 违约", fillcolor="#5eafea"] ;
57 -> 58 ;
59 [label="说明文本长度 <= 0.04\ngini = 0.479\nsamples = 66\nvalue = [67, 44]\nclass = 不违约", fillcolor="#f6d4bb"] ;
57 -> 59 ;
60 [label="gini = 0.133\nsamples = 16\nvalue = [26, 2]\nclass = 不违约", fillcolor="#e78b48"] ;
59 -> 60 ;
61 [label="文本可读性指标3 <= 0.118\ngini = 0.5\nsamples = 50\nvalue = [41, 42]\nclass = 违约", fillcolor="#fafdfe"] ;
59 -> 61 ;
62 [label="说明文本长度 <= 0.048\ngini = 0.496\nsamples = 46\nvalue = [41, 34]\nclass = 不违约", fillcolor="#fbe9dd"] ;
61 -> 62 ;
63 [label="gini = 0.363\nsamples = 13\nvalue = [5, 16]\nclass = 违约", fillcolor="#77bced"] ;
62 -> 63 ;
64 [label="是否有车贷 <= 0.5\ngini = 0.444\nsamples = 33\nvalue = [36, 18]\nclass = 不违约", fillcolor="#f2c09c"] ;
62 -> 64 ;
65 [label="gini = 0.408\nsamples = 29\nvalue = [35, 14]\nclass = 不违约", fillcolor="#efb388"] ;
64 -> 65 ;
66 [label="gini = 0.32\nsamples = 4\nvalue = [1, 4]\nclass = 违约", fillcolor="#6ab6ec"] ;
64 -> 66 ;
67 [label="gini = 0.0\nsamples = 4\nvalue = [0, 8]\nclass = 违约", fillcolor="#399de5"] ;
61 -> 67 ;
68 [label="信用评分 <= 0.394\ngini = 0.241\nsamples = 307\nvalue = [429, 70]\nclass = 不违约", fillcolor="#e99659"] ;
46 -> 68 ;
69 [label="说明文本长度 <= 0.147\ngini = 0.222\nsamples = 300\nvalue = [426, 62]\nclass = 不违约", fillcolor="#e99356"] ;
68 -> 69 ;
70 [label="信用评分 <= 0.379\ngini = 0.194\nsamples = 280\nvalue = [410, 50]\nclass = 不违约", fillcolor="#e89051"] ;
69 -> 70 ;
71 [label="借款金额（万元） <= 0.004\ngini = 0.134\nsamples = 199\nvalue = [308, 24]\nclass = 不违约", fillcolor="#e78b48"] ;
70 -> 71 ;
72 [label="gini = 0.465\nsamples = 9\nvalue = [12, 7]\nclass = 不违约", fillcolor="#f4caac"] ;
71 -> 72 ;
73 [label="收入水平 <= 0.772\ngini = 0.103\nsamples = 190\nvalue = [296, 17]\nclass = 不违约", fillcolor="#e68844"] ;
71 -> 73 ;
74 [label="态度 <= 0.457\ngini = 0.089\nsamples = 181\nvalue = [287, 14]\nclass = 不违约", fillcolor="#e68743"] ;
73 -> 74 ;
75 [label="gini = 0.078\nsamples = 177\nvalue = [283, 12]\nclass = 不违约", fillcolor="#e68641"] ;
74 -> 75 ;
76 [label="gini = 0.444\nsamples = 4\nvalue = [4, 2]\nclass = 不违约", fillcolor="#f2c09c"] ;
74 -> 76 ;
77 [label="gini = 0.375\nsamples = 9\nvalue = [9, 3]\nclass = 不违约", fillcolor="#eeab7b"] ;
73 -> 77 ;
78 [label="Interest(%) <= 0.192\ngini = 0.324\nsamples = 81\nvalue = [102, 26]\nclass = 不违约", fillcolor="#eca16b"] ;
70 -> 78 ;
79 [label="gini = 0.463\nsamples = 15\nvalue = [8, 14]\nclass = 违约", fillcolor="#aad5f4"] ;
78 -> 79 ;
80 [label="态度 <= 0.4\ngini = 0.201\nsamples = 66\nvalue = [94, 12]\nclass = 不违约", fillcolor="#e89152"] ;
78 -> 80 ;
81 [label="文本可读性指标2 <= 0.053\ngini = 0.151\nsamples = 59\nvalue = [89, 8]\nclass = 不违约", fillcolor="#e78c4b"] ;
80 -> 81 ;
82 [label="gini = 0.42\nsamples = 6\nvalue = [7, 3]\nclass = 不违约", fillcolor="#f0b78e"] ;
81 -> 82 ;
83 [label="gini = 0.108\nsamples = 53\nvalue = [82, 5]\nclass = 不违约", fillcolor="#e78945"] ;
81 -> 83 ;
84 [label="gini = 0.494\nsamples = 7\nvalue = [5, 4]\nclass = 不违约", fillcolor="#fae6d7"] ;
80 -> 84 ;
85 [label="借款用途2 <= 0.5\ngini = 0.49\nsamples = 20\nvalue = [16, 12]\nclass = 不违约", fillcolor="#f8e0ce"] ;
69 -> 85 ;
86 [label="gini = 0.397\nsamples = 16\nvalue = [16, 6]\nclass = 不违约", fillcolor="#efb083"] ;
85 -> 86 ;
87 [label="gini = 0.0\nsamples = 4\nvalue = [0, 6]\nclass = 违约", fillcolor="#399de5"] ;
85 -> 87 ;
88 [label="gini = 0.397\nsamples = 7\nvalue = [3, 8]\nclass = 违约", fillcolor="#83c2ef"] ;
68 -> 88 ;
89 [label="信用评分 <= 0.335\ngini = 0.461\nsamples = 153\nvalue = [169, 95]\nclass = 不违约", fillcolor="#f4c8a8"] ;
45 -> 89 ;
90 [label="gini = 0.384\nsamples = 14\nvalue = [7, 20]\nclass = 违约", fillcolor="#7ebfee"] ;
89 -> 90 ;
91 [label="是否结婚 <= 0.023\ngini = 0.433\nsamples = 139\nvalue = [162, 75]\nclass = 不违约", fillcolor="#f1bb95"] ;
89 -> 91 ;
92 [label="文本可读性指标2 <= 0.096\ngini = 0.472\nsamples = 102\nvalue = [110, 68]\nclass = 不违约", fillcolor="#f5cfb3"] ;
91 -> 92 ;
93 [label="说明文本长度 <= 0.148\ngini = 0.498\nsamples = 43\nvalue = [35, 40]\nclass = 违约", fillcolor="#e6f3fc"] ;
92 -> 93 ;
94 [label="说明文本长度 <= 0.046\ngini = 0.494\nsamples = 35\nvalue = [35, 28]\nclass = 不违约", fillcolor="#fae6d7"] ;
93 -> 94 ;
95 [label="gini = 0.208\nsamples = 9\nvalue = [2, 15]\nclass = 违约", fillcolor="#53aae8"] ;
94 -> 95 ;
96 [label="态度 <= 0.315\ngini = 0.405\nsamples = 26\nvalue = [33, 13]\nclass = 不违约", fillcolor="#efb387"] ;
94 -> 96 ;
97 [label="期限（月） <= 0.267\ngini = 0.289\nsamples = 22\nvalue = [33, 7]\nclass = 不违约", fillcolor="#eb9c63"] ;
96 -> 97 ;
98 [label="gini = 0.128\nsamples = 14\nvalue = [27, 2]\nclass = 不违约", fillcolor="#e78a48"] ;
97 -> 98 ;
99 [label="gini = 0.496\nsamples = 8\nvalue = [6, 5]\nclass = 不违约", fillcolor="#fbeade"] ;
97 -> 99 ;
100 [label="gini = 0.0\nsamples = 4\nvalue = [0, 6]\nclass = 违约", fillcolor="#399de5"] ;
96 -> 100 ;
101 [label="gini = 0.0\nsamples = 8\nvalue = [0, 12]\nclass = 违约", fillcolor="#399de5"] ;
93 -> 101 ;
102 [label="Interest(%) <= 0.184\ngini = 0.396\nsamples = 59\nvalue = [75, 28]\nclass = 不违约", fillcolor="#efb083"] ;
92 -> 102 ;
103 [label="gini = 0.488\nsamples = 14\nvalue = [8, 11]\nclass = 违约", fillcolor="#c9e4f8"] ;
102 -> 103 ;
104 [label="态度 <= 0.271\ngini = 0.323\nsamples = 45\nvalue = [67, 17]\nclass = 不违约", fillcolor="#eca16b"] ;
102 -> 104 ;
105 [label="文本可读性指标3 <= 0.044\ngini = 0.455\nsamples = 22\nvalue = [26, 14]\nclass = 不违约", fillcolor="#f3c5a4"] ;
104 -> 105 ;
106 [label="gini = 0.0\nsamples = 6\nvalue = [14, 0]\nclass = 不违约", fillcolor="#e58139"] ;
105 -> 106 ;
107 [label="gini = 0.497\nsamples = 16\nvalue = [12, 14]\nclass = 违约", fillcolor="#e3f1fb"] ;
105 -> 107 ;
108 [label="文本可读性指标3 <= 0.057\ngini = 0.127\nsamples = 23\nvalue = [41, 3]\nclass = 不违约", fillcolor="#e78a47"] ;
104 -> 108 ;
109 [label="gini = 0.49\nsamples = 4\nvalue = [4, 3]\nclass = 不违约", fillcolor="#f8e0ce"] ;
108 -> 109 ;
110 [label="gini = 0.0\nsamples = 19\nvalue = [37, 0]\nclass = 不违约", fillcolor="#e58139"] ;
108 -> 110 ;
111 [label="工作信息（有无） <= 0.5\ngini = 0.209\nsamples = 37\nvalue = [52, 7]\nclass = 不违约", fillcolor="#e89254"] ;
91 -> 111 ;
112 [label="gini = 0.5\nsamples = 5\nvalue = [5, 5]\nclass = 不违约", fillcolor="#ffffff"] ;
111 -> 112 ;
113 [label="是否有车 <= 0.74\ngini = 0.078\nsamples = 32\nvalue = [47, 2]\nclass = 不违约", fillcolor="#e68641"] ;
111 -> 113 ;
114 [label="gini = 0.0\nsamples = 22\nvalue = [32, 0]\nclass = 不违约", fillcolor="#e58139"] ;
113 -> 114 ;
115 [label="gini = 0.208\nsamples = 10\nvalue = [15, 2]\nclass = 不违约", fillcolor="#e89253"] ;
113 -> 115 ;
116 [label="gini = 0.0\nsamples = 8\nvalue = [0, 13]\nclass = 违约", fillcolor="#399de5"] ;
44 -> 116 ;
117 [label="态度 <= 0.267\ngini = 0.494\nsamples = 89\nvalue = [62, 77]\nclass = 违约", fillcolor="#d8ecfa"] ;
43 -> 117 ;
118 [label="Interest(%) <= 0.261\ngini = 0.497\nsamples = 65\nvalue = [54, 46]\nclass = 不违约", fillcolor="#fbece2"] ;
117 -> 118 ;
119 [label="文本可读性指标2 <= 0.091\ngini = 0.491\nsamples = 43\nvalue = [30, 39]\nclass = 违约", fillcolor="#d1e8f9"] ;
118 -> 119 ;
120 [label="gini = 0.351\nsamples = 13\nvalue = [17, 5]\nclass = 不违约", fillcolor="#eda673"] ;
119 -> 120 ;
121 [label="年龄 <= 0.147\ngini = 0.4\nsamples = 30\nvalue = [13, 34]\nclass = 违约", fillcolor="#85c2ef"] ;
119 -> 121 ;
122 [label="gini = 0.105\nsamples = 13\nvalue = [1, 17]\nclass = 违约", fillcolor="#45a3e7"] ;
121 -> 122 ;
123 [label="gini = 0.485\nsamples = 17\nvalue = [12, 17]\nclass = 违约", fillcolor="#c5e2f7"] ;
121 -> 123 ;
124 [label="文本可读性指标2 <= 0.087\ngini = 0.35\nsamples = 22\nvalue = [24, 7]\nclass = 不违约", fillcolor="#eda673"] ;
118 -> 124 ;
125 [label="gini = 0.48\nsamples = 6\nvalue = [4, 6]\nclass = 违约", fillcolor="#bddef6"] ;
124 -> 125 ;
126 [label="gini = 0.091\nsamples = 16\nvalue = [20, 1]\nclass = 不违约", fillcolor="#e68743"] ;
124 -> 126 ;
127 [label="借款金额（万元） <= 0.047\ngini = 0.326\nsamples = 24\nvalue = [8, 31]\nclass = 违约", fillcolor="#6cb6ec"] ;
117 -> 127 ;
128 [label="说明文本长度 <= 0.088\ngini = 0.213\nsamples = 20\nvalue = [4, 29]\nclass = 违约", fillcolor="#54abe9"] ;
127 -> 128 ;
129 [label="gini = 0.469\nsamples = 6\nvalue = [3, 5]\nclass = 违约", fillcolor="#b0d8f5"] ;
128 -> 129 ;
130 [label="gini = 0.077\nsamples = 14\nvalue = [1, 24]\nclass = 违约", fillcolor="#41a1e6"] ;
128 -> 130 ;
131 [label="gini = 0.444\nsamples = 4\nvalue = [4, 2]\nclass = 不违约", fillcolor="#f2c09c"] ;
127 -> 131 ;
132 [label="信用评分 <= 0.351\ngini = 0.496\nsamples = 98\nvalue = [73, 88]\nclass = 违约", fillcolor="#ddeefb"] ;
42 -> 132 ;
133 [label="文本可读性指标3 <= 0.099\ngini = 0.396\nsamples = 45\nvalue = [19, 51]\nclass = 违约", fillcolor="#83c2ef"] ;
132 -> 133 ;
134 [label="态度 <= 0.373\ngini = 0.214\nsamples = 27\nvalue = [5, 36]\nclass = 违约", fillcolor="#54abe9"] ;
133 -> 134 ;
135 [label="gini = 0.062\nsamples = 18\nvalue = [1, 30]\nclass = 违约", fillcolor="#40a0e6"] ;
134 -> 135 ;
136 [label="gini = 0.48\nsamples = 9\nvalue = [4, 6]\nclass = 违约", fillcolor="#bddef6"] ;
134 -> 136 ;
137 [label="gini = 0.499\nsamples = 18\nvalue = [14, 15]\nclass = 违约", fillcolor="#f2f8fd"] ;
133 -> 137 ;
138 [label="期限（月） <= 0.196\ngini = 0.483\nsamples = 53\nvalue = [54, 37]\nclass = 不违约", fillcolor="#f7d7c1"] ;
132 -> 138 ;
139 [label="是否结婚 <= 0.5\ngini = 0.449\nsamples = 27\nvalue = [16, 31]\nclass = 违约", fillcolor="#9fd0f2"] ;
138 -> 139 ;
140 [label="文本可读性指标2 <= 0.121\ngini = 0.327\nsamples = 20\nvalue = [7, 27]\nclass = 违约", fillcolor="#6cb6ec"] ;
139 -> 140 ;
141 [label="gini = 0.077\nsamples = 14\nvalue = [1, 24]\nclass = 违约", fillcolor="#41a1e6"] ;
140 -> 141 ;
142 [label="gini = 0.444\nsamples = 6\nvalue = [6, 3]\nclass = 不违约", fillcolor="#f2c09c"] ;
140 -> 142 ;
143 [label="gini = 0.426\nsamples = 7\nvalue = [9, 4]\nclass = 不违约", fillcolor="#f1b991"] ;
139 -> 143 ;
144 [label="说明文本长度 <= 0.055\ngini = 0.236\nsamples = 26\nvalue = [38, 6]\nclass = 不违约", fillcolor="#e99558"] ;
138 -> 144 ;
145 [label="gini = 0.494\nsamples = 6\nvalue = [5, 4]\nclass = 不违约", fillcolor="#fae6d7"] ;
144 -> 145 ;
146 [label="借款金额（万元） <= 0.056\ngini = 0.108\nsamples = 20\nvalue = [33, 2]\nclass = 不违约", fillcolor="#e78945"] ;
144 -> 146 ;
147 [label="gini = 0.0\nsamples = 16\nvalue = [28, 0]\nclass = 不违约", fillcolor="#e58139"] ;
146 -> 147 ;
148 [label="gini = 0.408\nsamples = 4\nvalue = [5, 2]\nclass = 不违约", fillcolor="#efb388"] ;
146 -> 148 ;
149 [label="收入水平 <= 0.997\ngini = 0.243\nsamples = 1255\nvalue = [1714, 282]\nclass = 不违约", fillcolor="#e9965a"] ;
25 -> 149 ;
150 [label="请求表达 <= 0.992\ngini = 0.207\nsamples = 1082\nvalue = [1521, 202]\nclass = 不违约", fillcolor="#e89253"] ;
149 -> 150 ;
151 [label="文本可读性指标1 <= 0.07\ngini = 0.18\nsamples = 975\nvalue = [1397, 155]\nclass = 不违约", fillcolor="#e88f4f"] ;
150 -> 151 ;
152 [label="保证还款（有无） <= 0.983\ngini = 0.15\nsamples = 863\nvalue = [1271, 113]\nclass = 不违约", fillcolor="#e78c4b"] ;
151 -> 152 ;
153 [label="期限（月） <= 0.272\ngini = 0.124\nsamples = 776\nvalue = [1166, 83]\nclass = 不违约", fillcolor="#e78a47"] ;
152 -> 153 ;
154 [label="文本可读性指标1 <= 0.0\ngini = 0.068\nsamples = 478\nvalue = [744, 27]\nclass = 不违约", fillcolor="#e68640"] ;
153 -> 154 ;
155 [label="gini = 0.444\nsamples = 14\nvalue = [12, 6]\nclass = 不违约", fillcolor="#f2c09c"] ;
154 -> 155 ;
156 [label="文本可读性指标3 <= 0.248\ngini = 0.054\nsamples = 464\nvalue = [732, 21]\nclass = 不违约", fillcolor="#e6853f"] ;
154 -> 156 ;
157 [label="Interest(%) <= 0.123\ngini = 0.045\nsamples = 456\nvalue = [725, 17]\nclass = 不违约", fillcolor="#e6843e"] ;
156 -> 157 ;
158 [label="信用评分 <= 0.412\ngini = 0.117\nsamples = 100\nvalue = [151, 10]\nclass = 不违约", fillcolor="#e78946"] ;
157 -> 158 ;
159 [label="gini = 0.432\nsamples = 13\nvalue = [13, 6]\nclass = 不违约", fillcolor="#f1bb94"] ;
158 -> 159 ;
160 [label="文本可读性指标2 <= 0.054\ngini = 0.055\nsamples = 87\nvalue = [138, 4]\nclass = 不违约", fillcolor="#e6853f"] ;
158 -> 160 ;
161 [label="gini = 0.408\nsamples = 4\nvalue = [5, 2]\nclass = 不违约", fillcolor="#efb388"] ;
160 -> 161 ;
162 [label="借款金额（万元） <= 0.102\ngini = 0.029\nsamples = 83\nvalue = [133, 2]\nclass = 不违约", fillcolor="#e5833c"] ;
160 -> 162 ;
163 [label="文本可读性指标2 <= 0.155\ngini = 0.016\nsamples = 79\nvalue = [126, 1]\nclass = 不违约", fillcolor="#e5823b"] ;
162 -> 163 ;
164 [label="gini = 0.0\nsamples = 72\nvalue = [118, 0]\nclass = 不违约", fillcolor="#e58139"] ;
163 -> 164 ;
165 [label="gini = 0.198\nsamples = 7\nvalue = [8, 1]\nclass = 不违约", fillcolor="#e89152"] ;
163 -> 165 ;
166 [label="gini = 0.219\nsamples = 4\nvalue = [7, 1]\nclass = 不违约", fillcolor="#e99355"] ;
162 -> 166 ;
167 [label="态度 <= 0.499\ngini = 0.024\nsamples = 356\nvalue = [574, 7]\nclass = 不违约", fillcolor="#e5833b"] ;
157 -> 167 ;
168 [label="年龄 <= 0.023\ngini = 0.021\nsamples = 352\nvalue = [570, 6]\nclass = 不违约", fillcolor="#e5823b"] ;
167 -> 168 ;
169 [label="gini = 0.32\nsamples = 4\nvalue = [4, 1]\nclass = 不违约", fillcolor="#eca06a"] ;
168 -> 169 ;
170 [label="文本可读性指标2 <= 0.022\ngini = 0.017\nsamples = 348\nvalue = [566, 5]\nclass = 不违约", fillcolor="#e5823b"] ;
168 -> 170 ;
171 [label="gini = 0.278\nsamples = 4\nvalue = [5, 1]\nclass = 不违约", fillcolor="#ea9a61"] ;
170 -> 171 ;
172 [label="借款金额（万元） <= 0.054\ngini = 0.014\nsamples = 344\nvalue = [561, 4]\nclass = 不违约", fillcolor="#e5823a"] ;
170 -> 172 ;
173 [label="gini = 0.0\nsamples = 239\nvalue = [402, 0]\nclass = 不违约", fillcolor="#e58139"] ;
172 -> 173 ;
174 [label="gini = 0.048\nsamples = 105\nvalue = [159, 4]\nclass = 不违约", fillcolor="#e6843e"] ;
172 -> 174 ;
175 [label="gini = 0.32\nsamples = 4\nvalue = [4, 1]\nclass = 不违约", fillcolor="#eca06a"] ;
167 -> 175 ;
176 [label="gini = 0.463\nsamples = 8\nvalue = [7, 4]\nclass = 不违约", fillcolor="#f4c9aa"] ;
156 -> 176 ;
177 [label="年龄 <= 0.547\ngini = 0.207\nsamples = 298\nvalue = [422, 56]\nclass = 不违约", fillcolor="#e89253"] ;
153 -> 177 ;
178 [label="Interest(%) <= 0.246\ngini = 0.186\nsamples = 291\nvalue = [415, 48]\nclass = 不违约", fillcolor="#e89050"] ;
177 -> 178 ;
179 [label="信用评分 <= 0.417\ngini = 0.269\nsamples = 181\nvalue = [241, 46]\nclass = 不违约", fillcolor="#ea995f"] ;
178 -> 179 ;
180 [label="借款用途4 <= 0.5\ngini = 0.429\nsamples = 53\nvalue = [62, 28]\nclass = 不违约", fillcolor="#f1ba92"] ;
179 -> 180 ;
181 [label="信用评分 <= 0.416\ngini = 0.355\nsamples = 45\nvalue = [60, 18]\nclass = 不违约", fillcolor="#eda774"] ;
180 -> 181 ;
182 [label="借款用途2 <= 0.5\ngini = 0.264\nsamples = 36\nvalue = [54, 10]\nclass = 不违约", fillcolor="#ea985e"] ;
181 -> 182 ;
183 [label="借款用途3 <= 0.5\ngini = 0.1\nsamples = 20\nvalue = [36, 2]\nclass = 不违约", fillcolor="#e68844"] ;
182 -> 183 ;
184 [label="gini = 0.0\nsamples = 16\nvalue = [33, 0]\nclass = 不违约", fillcolor="#e58139"] ;
183 -> 184 ;
185 [label="gini = 0.48\nsamples = 4\nvalue = [3, 2]\nclass = 不违约", fillcolor="#f6d5bd"] ;
183 -> 185 ;
186 [label="gini = 0.426\nsamples = 16\nvalue = [18, 8]\nclass = 不违约", fillcolor="#f1b991"] ;
182 -> 186 ;
187 [label="gini = 0.49\nsamples = 9\nvalue = [6, 8]\nclass = 违约", fillcolor="#cee6f8"] ;
181 -> 187 ;
188 [label="gini = 0.278\nsamples = 8\nvalue = [2, 10]\nclass = 违约", fillcolor="#61b1ea"] ;
180 -> 188 ;
189 [label="信用评分 <= 0.5\ngini = 0.166\nsamples = 128\nvalue = [179, 18]\nclass = 不违约", fillcolor="#e88e4d"] ;
179 -> 189 ;
190 [label="文本可读性指标1 <= 0.022\ngini = 0.109\nsamples = 112\nvalue = [163, 10]\nclass = 不违约", fillcolor="#e78945"] ;
189 -> 190 ;
191 [label="文本可读性指标1 <= 0.02\ngini = 0.194\nsamples = 37\nvalue = [49, 6]\nclass = 不违约", fillcolor="#e89051"] ;
190 -> 191 ;
192 [label="年龄 <= 0.275\ngini = 0.051\nsamples = 25\nvalue = [37, 1]\nclass = 不违约", fillcolor="#e6843e"] ;
191 -> 192 ;
193 [label="gini = 0.0\nsamples = 21\nvalue = [33, 0]\nclass = 不违约", fillcolor="#e58139"] ;
192 -> 193 ;
194 [label="gini = 0.32\nsamples = 4\nvalue = [4, 1]\nclass = 不违约", fillcolor="#eca06a"] ;
192 -> 194 ;
195 [label="gini = 0.415\nsamples = 12\nvalue = [12, 5]\nclass = 不违约", fillcolor="#f0b58b"] ;
191 -> 195 ;
196 [label="信用评分 <= 0.421\ngini = 0.065\nsamples = 75\nvalue = [114, 4]\nclass = 不违约", fillcolor="#e68540"] ;
190 -> 196 ;
197 [label="gini = 0.298\nsamples = 8\nvalue = [9, 2]\nclass = 不违约", fillcolor="#eb9d65"] ;
196 -> 197 ;
198 [label="态度 <= 0.296\ngini = 0.037\nsamples = 67\nvalue = [105, 2]\nclass = 不违约", fillcolor="#e5833d"] ;
196 -> 198 ;
199 [label="gini = 0.0\nsamples = 54\nvalue = [86, 0]\nclass = 不违约", fillcolor="#e58139"] ;
198 -> 199 ;
200 [label="gini = 0.172\nsamples = 13\nvalue = [19, 2]\nclass = 不违约", fillcolor="#e88e4e"] ;
198 -> 200 ;
201 [label="gini = 0.444\nsamples = 16\nvalue = [16, 8]\nclass = 不违约", fillcolor="#f2c09c"] ;
189 -> 201 ;
202 [label="感谢表达 <= 0.9\ngini = 0.022\nsamples = 110\nvalue = [174, 2]\nclass = 不违约", fillcolor="#e5823b"] ;
178 -> 202 ;
203 [label="信用评分 <= 0.49\ngini = 0.012\nsamples = 106\nvalue = [168, 1]\nclass = 不违约", fillcolor="#e5823a"] ;
202 -> 203 ;
204 [label="gini = 0.0\nsamples = 94\nvalue = [153, 0]\nclass = 不违约", fillcolor="#e58139"] ;
203 -> 204 ;
205 [label="gini = 0.117\nsamples = 12\nvalue = [15, 1]\nclass = 不违约", fillcolor="#e78946"] ;
203 -> 205 ;
206 [label="gini = 0.245\nsamples = 4\nvalue = [6, 1]\nclass = 不违约", fillcolor="#e9965a"] ;
202 -> 206 ;
207 [label="gini = 0.498\nsamples = 7\nvalue = [7, 8]\nclass = 违约", fillcolor="#e6f3fc"] ;
177 -> 207 ;
208 [label="态度 <= 0.251\ngini = 0.346\nsamples = 87\nvalue = [105, 30]\nclass = 不违约", fillcolor="#eca572"] ;
152 -> 208 ;
209 [label="年龄 <= 0.167\ngini = 0.5\nsamples = 21\nvalue = [18, 17]\nclass = 不违约", fillcolor="#fef8f4"] ;
208 -> 209 ;
210 [label="gini = 0.32\nsamples = 9\nvalue = [3, 12]\nclass = 违约", fillcolor="#6ab6ec"] ;
209 -> 210 ;
211 [label="gini = 0.375\nsamples = 12\nvalue = [15, 5]\nclass = 不违约", fillcolor="#eeab7b"] ;
209 -> 211 ;
212 [label="借款用途4 <= 0.5\ngini = 0.226\nsamples = 66\nvalue = [87, 13]\nclass = 不违约", fillcolor="#e99457"] ;
208 -> 212 ;
213 [label="收入水平 <= 0.396\ngini = 0.151\nsamples = 56\nvalue = [78, 7]\nclass = 不违约", fillcolor="#e78c4b"] ;
212 -> 213 ;
214 [label="文本可读性指标3 <= 0.032\ngini = 0.041\nsamples = 33\nvalue = [47, 1]\nclass = 不违约", fillcolor="#e6843d"] ;
213 -> 214 ;
215 [label="gini = 0.32\nsamples = 4\nvalue = [4, 1]\nclass = 不违约", fillcolor="#eca06a"] ;
214 -> 215 ;
216 [label="gini = 0.0\nsamples = 29\nvalue = [43, 0]\nclass = 不违约", fillcolor="#e58139"] ;
214 -> 216 ;
217 [label="年龄 <= 0.264\ngini = 0.272\nsamples = 23\nvalue = [31, 6]\nclass = 不违约", fillcolor="#ea995f"] ;
213 -> 217 ;
218 [label="gini = 0.165\nsamples = 19\nvalue = [30, 3]\nclass = 不违约", fillcolor="#e88e4d"] ;
217 -> 218 ;
219 [label="gini = 0.375\nsamples = 4\nvalue = [1, 3]\nclass = 违约", fillcolor="#7bbeee"] ;
217 -> 219 ;
220 [label="gini = 0.48\nsamples = 10\nvalue = [9, 6]\nclass = 不违约", fillcolor="#f6d5bd"] ;
212 -> 220 ;
221 [label="借款金额（万元） <= 0.114\ngini = 0.375\nsamples = 112\nvalue = [126, 42]\nclass = 不违约", fillcolor="#eeab7b"] ;
151 -> 221 ;
222 [label="年龄 <= 0.16\ngini = 0.27\nsamples = 94\nvalue = [115, 22]\nclass = 不违约", fillcolor="#ea995f"] ;
221 -> 222 ;
223 [label="年龄 <= 0.156\ngini = 0.449\nsamples = 34\nvalue = [31, 16]\nclass = 不违约", fillcolor="#f2c29f"] ;
222 -> 223 ;
224 [label="是否有房 <= 0.5\ngini = 0.388\nsamples = 27\nvalue = [28, 10]\nclass = 不违约", fillcolor="#eeae80"] ;
223 -> 224 ;
225 [label="gini = 0.219\nsamples = 18\nvalue = [21, 3]\nclass = 不违约", fillcolor="#e99355"] ;
224 -> 225 ;
226 [label="gini = 0.5\nsamples = 9\nvalue = [7, 7]\nclass = 不违约", fillcolor="#ffffff"] ;
224 -> 226 ;
227 [label="gini = 0.444\nsamples = 7\nvalue = [3, 6]\nclass = 违约", fillcolor="#9ccef2"] ;
223 -> 227 ;
228 [label="文本可读性指标1 <= 0.072\ngini = 0.124\nsamples = 60\nvalue = [84, 6]\nclass = 不违约", fillcolor="#e78a47"] ;
222 -> 228 ;
229 [label="gini = 0.444\nsamples = 9\nvalue = [8, 4]\nclass = 不违约", fillcolor="#f2c09c"] ;
228 -> 229 ;
230 [label="借款用途1 <= 0.5\ngini = 0.05\nsamples = 51\nvalue = [76, 2]\nclass = 不违约", fillcolor="#e6843e"] ;
228 -> 230 ;
231 [label="gini = 0.0\nsamples = 47\nvalue = [74, 0]\nclass = 不违约", fillcolor="#e58139"] ;
230 -> 231 ;
232 [label="gini = 0.5\nsamples = 4\nvalue = [2, 2]\nclass = 不违约", fillcolor="#ffffff"] ;
230 -> 232 ;
233 [label="gini = 0.458\nsamples = 18\nvalue = [11, 20]\nclass = 违约", fillcolor="#a6d3f3"] ;
221 -> 233 ;
234 [label="借款金额（万元） <= 0.025\ngini = 0.399\nsamples = 107\nvalue = [124, 47]\nclass = 不违约", fillcolor="#efb184"] ;
150 -> 234 ;
235 [label="态度 <= 0.266\ngini = 0.5\nsamples = 45\nvalue = [35, 33]\nclass = 不违约", fillcolor="#fef8f4"] ;
234 -> 235 ;
236 [label="gini = 0.165\nsamples = 6\nvalue = [1, 10]\nclass = 违约", fillcolor="#4da7e8"] ;
235 -> 236 ;
237 [label="年龄 <= 0.175\ngini = 0.481\nsamples = 39\nvalue = [34, 23]\nclass = 不违约", fillcolor="#f7d6bf"] ;
235 -> 237 ;
238 [label="gini = 0.302\nsamples = 18\nvalue = [22, 5]\nclass = 不违约", fillcolor="#eb9e66"] ;
237 -> 238 ;
239 [label="期限（月） <= 0.157\ngini = 0.48\nsamples = 21\nvalue = [12, 18]\nclass = 违约", fillcolor="#bddef6"] ;
237 -> 239 ;
240 [label="gini = 0.48\nsamples = 15\nvalue = [12, 8]\nclass = 不违约", fillcolor="#f6d5bd"] ;
239 -> 240 ;
241 [label="gini = 0.0\nsamples = 6\nvalue = [0, 10]\nclass = 违约", fillcolor="#399de5"] ;
239 -> 241 ;
242 [label="文本可读性指标2 <= 0.029\ngini = 0.235\nsamples = 62\nvalue = [89, 14]\nclass = 不违约", fillcolor="#e99558"] ;
234 -> 242 ;
243 [label="gini = 0.375\nsamples = 4\nvalue = [1, 3]\nclass = 违约", fillcolor="#7bbeee"] ;
242 -> 243 ;
244 [label="文本可读性指标3 <= 0.048\ngini = 0.198\nsamples = 58\nvalue = [88, 11]\nclass = 不违约", fillcolor="#e89152"] ;
242 -> 244 ;
245 [label="gini = 0.5\nsamples = 5\nvalue = [3, 3]\nclass = 不违约", fillcolor="#ffffff"] ;
244 -> 245 ;
246 [label="信用评分 <= 0.406\ngini = 0.157\nsamples = 53\nvalue = [85, 8]\nclass = 不违约", fillcolor="#e78d4c"] ;
244 -> 246 ;
247 [label="gini = 0.5\nsamples = 4\nvalue = [2, 2]\nclass = 不违约", fillcolor="#ffffff"] ;
246 -> 247 ;
248 [label="Interest(%) <= 0.212\ngini = 0.126\nsamples = 49\nvalue = [83, 6]\nclass = 不违约", fillcolor="#e78a47"] ;
246 -> 248 ;
249 [label="gini = 0.34\nsamples = 13\nvalue = [18, 5]\nclass = 不违约", fillcolor="#eca470"] ;
248 -> 249 ;
250 [label="文本可读性指标3 <= 0.187\ngini = 0.03\nsamples = 36\nvalue = [65, 1]\nclass = 不违约", fillcolor="#e5833c"] ;
248 -> 250 ;
251 [label="gini = 0.0\nsamples = 32\nvalue = [61, 0]\nclass = 不违约", fillcolor="#e58139"] ;
250 -> 251 ;
252 [label="gini = 0.32\nsamples = 4\nvalue = [4, 1]\nclass = 不违约", fillcolor="#eca06a"] ;
250 -> 252 ;
253 [label="说明文本长度 <= 0.034\ngini = 0.414\nsamples = 173\nvalue = [193, 80]\nclass = 不违约", fillcolor="#f0b58b"] ;
149 -> 253 ;
254 [label="gini = 0.32\nsamples = 5\nvalue = [2, 8]\nclass = 违约", fillcolor="#6ab6ec"] ;
253 -> 254 ;
255 [label="信用评分 <= 0.451\ngini = 0.398\nsamples = 168\nvalue = [191, 72]\nclass = 不违约", fillcolor="#efb084"] ;
253 -> 255 ;
256 [label="信用评分 <= 0.449\ngini = 0.478\nsamples = 56\nvalue = [60, 39]\nclass = 不违约", fillcolor="#f6d3ba"] ;
255 -> 256 ;
257 [label="态度 <= 0.283\ngini = 0.388\nsamples = 40\nvalue = [56, 20]\nclass = 不违约", fillcolor="#eeae80"] ;
256 -> 257 ;
258 [label="是否有车 <= 0.142\ngini = 0.229\nsamples = 26\nvalue = [46, 7]\nclass = 不违约", fillcolor="#e99457"] ;
257 -> 258 ;
259 [label="gini = 0.496\nsamples = 6\nvalue = [6, 5]\nclass = 不违约", fillcolor="#fbeade"] ;
258 -> 259 ;
260 [label="借款金额（万元） <= 0.065\ngini = 0.091\nsamples = 20\nvalue = [40, 2]\nclass = 不违约", fillcolor="#e68743"] ;
258 -> 260 ;
261 [label="gini = 0.375\nsamples = 4\nvalue = [6, 2]\nclass = 不违约", fillcolor="#eeab7b"] ;
260 -> 261 ;
262 [label="gini = 0.0\nsamples = 16\nvalue = [34, 0]\nclass = 不违约", fillcolor="#e58139"] ;
260 -> 262 ;
263 [label="gini = 0.491\nsamples = 14\nvalue = [10, 13]\nclass = 违约", fillcolor="#d1e8f9"] ;
257 -> 263 ;
264 [label="gini = 0.287\nsamples = 16\nvalue = [4, 19]\nclass = 违约", fillcolor="#63b2ea"] ;
256 -> 264 ;
265 [label="信用评分 <= 0.514\ngini = 0.321\nsamples = 112\nvalue = [131, 33]\nclass = 不违约", fillcolor="#eca16b"] ;
255 -> 265 ;
266 [label="期限（月） <= 0.166\ngini = 0.203\nsamples = 60\nvalue = [77, 10]\nclass = 不违约", fillcolor="#e89153"] ;
265 -> 266 ;
267 [label="gini = 0.0\nsamples = 31\nvalue = [39, 0]\nclass = 不违约", fillcolor="#e58139"] ;
266 -> 267 ;
268 [label="文本可读性指标3 <= 0.108\ngini = 0.33\nsamples = 29\nvalue = [38, 10]\nclass = 不违约", fillcolor="#eca26d"] ;
266 -> 268 ;
269 [label="gini = 0.069\nsamples = 15\nvalue = [27, 1]\nclass = 不违约", fillcolor="#e68640"] ;
268 -> 269 ;
270 [label="gini = 0.495\nsamples = 14\nvalue = [11, 9]\nclass = 不违约", fillcolor="#fae8db"] ;
268 -> 270 ;
271 [label="文本可读性指标3 <= 0.192\ngini = 0.419\nsamples = 52\nvalue = [54, 23]\nclass = 不违约", fillcolor="#f0b78d"] ;
265 -> 271 ;
272 [label="说明文本长度 <= 0.067\ngini = 0.355\nsamples = 43\nvalue = [50, 15]\nclass = 不违约", fillcolor="#eda774"] ;
271 -> 272 ;
273 [label="gini = 0.49\nsamples = 10\nvalue = [6, 8]\nclass = 违约", fillcolor="#cee6f8"] ;
272 -> 273 ;
274 [label="态度 <= 0.335\ngini = 0.237\nsamples = 33\nvalue = [44, 7]\nclass = 不违约", fillcolor="#e99558"] ;
272 -> 274 ;
275 [label="文本可读性指标3 <= 0.16\ngini = 0.05\nsamples = 26\nvalue = [38, 1]\nclass = 不违约", fillcolor="#e6843e"] ;
274 -> 275 ;
276 [label="gini = 0.0\nsamples = 22\nvalue = [35, 0]\nclass = 不违约", fillcolor="#e58139"] ;
275 -> 276 ;
277 [label="gini = 0.375\nsamples = 4\nvalue = [3, 1]\nclass = 不违约", fillcolor="#eeab7b"] ;
275 -> 277 ;
278 [label="gini = 0.5\nsamples = 7\nvalue = [6, 6]\nclass = 不违约", fillcolor="#ffffff"] ;
274 -> 278 ;
279 [label="gini = 0.444\nsamples = 9\nvalue = [4, 8]\nclass = 违约", fillcolor="#9ccef2"] ;
271 -> 279 ;
280 [label="信用评分 <= 0.451\ngini = 0.495\nsamples = 403\nvalue = [330, 272]\nclass = 不违约", fillcolor="#fae9dc"] ;
24 -> 280 ;
281 [label="借款金额（万元） <= 0.148\ngini = 0.481\nsamples = 223\nvalue = [138, 204]\nclass = 违约", fillcolor="#bfdff7"] ;
280 -> 281 ;
282 [label="保证还款（有无） <= 0.785\ngini = 0.5\nsamples = 179\nvalue = [136, 142]\nclass = 违约", fillcolor="#f7fbfe"] ;
281 -> 282 ;
283 [label="文本可读性指标3 <= 0.085\ngini = 0.49\nsamples = 140\nvalue = [124, 93]\nclass = 不违约", fillcolor="#f8e0ce"] ;
282 -> 283 ;
284 [label="借款金额（万元） <= 0.023\ngini = 0.391\nsamples = 62\nvalue = [66, 24]\nclass = 不违约", fillcolor="#eeaf81"] ;
283 -> 284 ;
285 [label="说明文本长度 <= 0.044\ngini = 0.498\nsamples = 22\nvalue = [16, 14]\nclass = 不违约", fillcolor="#fcefe6"] ;
284 -> 285 ;
286 [label="gini = 0.32\nsamples = 9\nvalue = [3, 12]\nclass = 违约", fillcolor="#6ab6ec"] ;
285 -> 286 ;
287 [label="gini = 0.231\nsamples = 13\nvalue = [13, 2]\nclass = 不违约", fillcolor="#e99457"] ;
285 -> 287 ;
288 [label="请求表达 <= 0.5\ngini = 0.278\nsamples = 40\nvalue = [50, 10]\nclass = 不违约", fillcolor="#ea9a61"] ;
284 -> 288 ;
289 [label="年龄 <= 0.092\ngini = 0.201\nsamples = 34\nvalue = [47, 6]\nclass = 不违约", fillcolor="#e89152"] ;
288 -> 289 ;
290 [label="gini = 0.5\nsamples = 4\nvalue = [2, 2]\nclass = 不违约", fillcolor="#ffffff"] ;
289 -> 290 ;
291 [label="收入水平 <= 0.7\ngini = 0.15\nsamples = 30\nvalue = [45, 4]\nclass = 不违约", fillcolor="#e78c4b"] ;
289 -> 291 ;
292 [label="文本可读性指标1 <= 0.038\ngini = 0.049\nsamples = 24\nvalue = [39, 1]\nclass = 不违约", fillcolor="#e6843e"] ;
291 -> 292 ;
293 [label="gini = 0.0\nsamples = 20\nvalue = [35, 0]\nclass = 不违约", fillcolor="#e58139"] ;
292 -> 293 ;
294 [label="gini = 0.32\nsamples = 4\nvalue = [4, 1]\nclass = 不违约", fillcolor="#eca06a"] ;
292 -> 294 ;
295 [label="gini = 0.444\nsamples = 6\nvalue = [6, 3]\nclass = 不违约", fillcolor="#f2c09c"] ;
291 -> 295 ;
296 [label="gini = 0.49\nsamples = 6\nvalue = [3, 4]\nclass = 违约", fillcolor="#cee6f8"] ;
288 -> 296 ;
297 [label="态度 <= 0.298\ngini = 0.496\nsamples = 78\nvalue = [58, 69]\nclass = 违约", fillcolor="#dfeffb"] ;
283 -> 297 ;
298 [label="文本可读性指标1 <= 0.048\ngini = 0.479\nsamples = 43\nvalue = [41, 27]\nclass = 不违约", fillcolor="#f6d4bb"] ;
297 -> 298 ;
299 [label="借款金额（万元） <= 0.073\ngini = 0.381\nsamples = 26\nvalue = [32, 11]\nclass = 不违约", fillcolor="#eeac7d"] ;
298 -> 299 ;
300 [label="说明文本长度 <= 0.102\ngini = 0.278\nsamples = 22\nvalue = [30, 6]\nclass = 不违约", fillcolor="#ea9a61"] ;
299 -> 300 ;
301 [label="gini = 0.444\nsamples = 13\nvalue = [12, 6]\nclass = 不违约", fillcolor="#f2c09c"] ;
300 -> 301 ;
302 [label="gini = 0.0\nsamples = 9\nvalue = [18, 0]\nclass = 不违约", fillcolor="#e58139"] ;
300 -> 302 ;
303 [label="gini = 0.408\nsamples = 4\nvalue = [2, 5]\nclass = 违约", fillcolor="#88c4ef"] ;
299 -> 303 ;
304 [label="gini = 0.461\nsamples = 17\nvalue = [9, 16]\nclass = 违约", fillcolor="#a8d4f4"] ;
298 -> 304 ;
305 [label="借款金额（万元） <= 0.013\ngini = 0.41\nsamples = 35\nvalue = [17, 42]\nclass = 违约", fillcolor="#89c5f0"] ;
297 -> 305 ;
306 [label="gini = 0.49\nsamples = 12\nvalue = [12, 9]\nclass = 不违约", fillcolor="#f8e0ce"] ;
305 -> 306 ;
307 [label="年龄 <= 0.127\ngini = 0.229\nsamples = 23\nvalue = [5, 33]\nclass = 违约", fillcolor="#57ace9"] ;
305 -> 307 ;
308 [label="gini = 0.49\nsamples = 6\nvalue = [3, 4]\nclass = 违约", fillcolor="#cee6f8"] ;
307 -> 308 ;
309 [label="gini = 0.121\nsamples = 17\nvalue = [2, 29]\nclass = 违约", fillcolor="#47a4e7"] ;
307 -> 309 ;
310 [label="态度 <= 0.382\ngini = 0.316\nsamples = 39\nvalue = [12, 49]\nclass = 违约", fillcolor="#69b5eb"] ;
282 -> 310 ;
311 [label="说明文本长度 <= 0.101\ngini = 0.201\nsamples = 34\nvalue = [6, 47]\nclass = 违约", fillcolor="#52aae8"] ;
310 -> 311 ;
312 [label="gini = 0.444\nsamples = 9\nvalue = [5, 10]\nclass = 违约", fillcolor="#9ccef2"] ;
311 -> 312 ;
313 [label="文本可读性指标3 <= 0.242\ngini = 0.051\nsamples = 25\nvalue = [1, 37]\nclass = 违约", fillcolor="#3ea0e6"] ;
311 -> 313 ;
314 [label="gini = 0.0\nsamples = 21\nvalue = [0, 34]\nclass = 违约", fillcolor="#399de5"] ;
313 -> 314 ;
315 [label="gini = 0.375\nsamples = 4\nvalue = [1, 3]\nclass = 违约", fillcolor="#7bbeee"] ;
313 -> 315 ;
316 [label="gini = 0.375\nsamples = 5\nvalue = [6, 2]\nclass = 不违约", fillcolor="#eeab7b"] ;
310 -> 316 ;
317 [label="借款金额（万元） <= 0.185\ngini = 0.061\nsamples = 44\nvalue = [2, 62]\nclass = 违约", fillcolor="#3fa0e6"] ;
281 -> 317 ;
318 [label="gini = 0.231\nsamples = 10\nvalue = [2, 13]\nclass = 违约", fillcolor="#57ace9"] ;
317 -> 318 ;
319 [label="gini = 0.0\nsamples = 34\nvalue = [0, 49]\nclass = 违约", fillcolor="#399de5"] ;
317 -> 319 ;
320 [label="借款金额（万元） <= 0.48\ngini = 0.386\nsamples = 180\nvalue = [192, 68]\nclass = 不违约", fillcolor="#eeae7f"] ;
280 -> 320 ;
321 [label="态度 <= 0.444\ngini = 0.31\nsamples = 156\nvalue = [181, 43]\nclass = 不违约", fillcolor="#eb9f68"] ;
320 -> 321 ;
322 [label="信用评分 <= 0.477\ngini = 0.266\nsamples = 143\nvalue = [176, 33]\nclass = 不违约", fillcolor="#ea995e"] ;
321 -> 322 ;
323 [label="借款用途5 <= 0.5\ngini = 0.066\nsamples = 62\nvalue = [85, 3]\nclass = 不违约", fillcolor="#e68540"] ;
322 -> 323 ;
324 [label="借款金额（万元） <= 0.175\ngini = 0.18\nsamples = 23\nvalue = [27, 3]\nclass = 不违约", fillcolor="#e88f4f"] ;
323 -> 324 ;
325 [label="gini = 0.32\nsamples = 12\nvalue = [12, 3]\nclass = 不违约", fillcolor="#eca06a"] ;
324 -> 325 ;
326 [label="gini = 0.0\nsamples = 11\nvalue = [15, 0]\nclass = 不违约", fillcolor="#e58139"] ;
324 -> 326 ;
327 [label="gini = 0.0\nsamples = 39\nvalue = [58, 0]\nclass = 不违约", fillcolor="#e58139"] ;
323 -> 327 ;
328 [label="态度 <= 0.284\ngini = 0.373\nsamples = 81\nvalue = [91, 30]\nclass = 不违约", fillcolor="#eeab7a"] ;
322 -> 328 ;
329 [label="是否有房 <= 0.5\ngini = 0.206\nsamples = 26\nvalue = [38, 5]\nclass = 不违约", fillcolor="#e89253"] ;
328 -> 329 ;
330 [label="gini = 0.415\nsamples = 11\nvalue = [12, 5]\nclass = 不违约", fillcolor="#f0b58b"] ;
329 -> 330 ;
331 [label="gini = 0.0\nsamples = 15\nvalue = [26, 0]\nclass = 不违约", fillcolor="#e58139"] ;
329 -> 331 ;
332 [label="信用评分 <= 0.49\ngini = 0.436\nsamples = 55\nvalue = [53, 25]\nclass = 不违约", fillcolor="#f1bc96"] ;
328 -> 332 ;
333 [label="gini = 0.484\nsamples = 12\nvalue = [7, 10]\nclass = 违约", fillcolor="#c4e2f7"] ;
332 -> 333 ;
334 [label="文本可读性指标2 <= 0.134\ngini = 0.371\nsamples = 43\nvalue = [46, 15]\nclass = 不违约", fillcolor="#edaa7a"] ;
332 -> 334 ;
335 [label="文本可读性指标3 <= 0.125\ngini = 0.306\nsamples = 37\nvalue = [43, 10]\nclass = 不违约", fillcolor="#eb9e67"] ;
334 -> 335 ;
336 [label="文本可读性指标2 <= 0.087\ngini = 0.176\nsamples = 28\nvalue = [37, 4]\nclass = 不违约", fillcolor="#e88f4e"] ;
335 -> 336 ;
337 [label="gini = 0.397\nsamples = 7\nvalue = [8, 3]\nclass = 不违约", fillcolor="#efb083"] ;
336 -> 337 ;
338 [label="收入水平 <= 0.816\ngini = 0.064\nsamples = 21\nvalue = [29, 1]\nclass = 不违约", fillcolor="#e68540"] ;
336 -> 338 ;
339 [label="gini = 0.0\nsamples = 17\nvalue = [26, 0]\nclass = 不违约", fillcolor="#e58139"] ;
338 -> 339 ;
340 [label="gini = 0.375\nsamples = 4\nvalue = [3, 1]\nclass = 不违约", fillcolor="#eeab7b"] ;
338 -> 340 ;
341 [label="gini = 0.5\nsamples = 9\nvalue = [6, 6]\nclass = 不违约", fillcolor="#ffffff"] ;
335 -> 341 ;
342 [label="gini = 0.469\nsamples = 6\nvalue = [3, 5]\nclass = 违约", fillcolor="#b0d8f5"] ;
334 -> 342 ;
343 [label="gini = 0.444\nsamples = 13\nvalue = [5, 10]\nclass = 违约", fillcolor="#9ccef2"] ;
321 -> 343 ;
344 [label="文本可读性指标2 <= 0.137\ngini = 0.424\nsamples = 24\nvalue = [11, 25]\nclass = 违约", fillcolor="#90c8f0"] ;
320 -> 344 ;
345 [label="文本可读性指标2 <= 0.072\ngini = 0.342\nsamples = 20\nvalue = [7, 25]\nclass = 违约", fillcolor="#70b8ec"] ;
344 -> 345 ;
346 [label="gini = 0.0\nsamples = 5\nvalue = [0, 12]\nclass = 违约", fillcolor="#399de5"] ;
345 -> 346 ;
347 [label="gini = 0.455\nsamples = 15\nvalue = [7, 13]\nclass = 违约", fillcolor="#a4d2f3"] ;
345 -> 347 ;
348 [label="gini = 0.0\nsamples = 4\nvalue = [4, 0]\nclass = 不违约", fillcolor="#e58139"] ;
344 -> 348 ;
}